<?xml version="1.0"?>
<opencv_storage>
<cascade>
  <stageType>BOOST</stageType>
  <featureType>LBP</featureType>
  <height>120</height>
  <width>20</width>
  <stageParams>
    <boostType>GAB</boostType>
    <minHitRate>9.9900001287460327e-01</minHitRate>
    <maxFalseAlarm>5.0000000000000000e-01</maxFalseAlarm>
    <weightTrimRate>9.4999999999999996e-01</weightTrimRate>
    <maxDepth>1</maxDepth>
    <maxWeakCount>100</maxWeakCount></stageParams>
  <featureParams>
    <maxCatCount>256</maxCatCount>
    <featSize>1</featSize></featureParams>
  <stageNum>20</stageNum>
  <stages>
    <!-- stage 0 -->
    <_>
      <maxWeakCount>3</maxWeakCount>
      <stageThreshold>-7.5046223402023315e-01</stageThreshold>
      <weakClassifiers>
        <_>
          <internalNodes>
            0 -1 41 -206841654 -536477878 -699859372 1343315549 688266
            90488834 285267423 1359207935</internalNodes>
          <leafValues>
            -7.2698414325714111e-01 8.8453608751296997e-01</leafValues></_>
        <_>
          <internalNodes>
            0 -1 33 -268316480 1073807680 -805220032 -787279615
            -1845460990 67108872 -2138931037 -140803701</internalNodes>
          <leafValues>
            -7.9036933183670044e-01 8.2506400346755981e-01</leafValues></_>
        <_>
          <internalNodes>
            0 -1 148 -1577004898 8388608 -2147483631 1610907648
            151028224 0 8388995 -1037385685</internalNodes>
          <leafValues>
            -7.4670350551605225e-01 7.6689118146896362e-01</leafValues></_></weakClassifiers></_>
    <!-- stage 1 -->
    <_>
      <maxWeakCount>4</maxWeakCount>
      <stageThreshold>-1.3512449264526367e+00</stageThreshold>
      <weakClassifiers>
        <_>
          <internalNodes>
            0 -1 30 -81 -519486719 -151519245 -260046849 -814219450
            1197993998 1979184615 -950012449</internalNodes>
          <leafValues>
            -6.3636362552642822e-01 7.8894472122192383e-01</leafValues></_>
        <_>
          <internalNodes>
            0 -1 99 -273678353 -823234582 1660616433 576912636
            -1347952658 -1907982490 -145557513 -1038354441</internalNodes>
          <leafValues>
            -6.6451060771942139e-01 7.3017948865890503e-01</leafValues></_>
        <_>
          <internalNodes>
            0 -1 12 -609297526 -1023393792 -2147454959 1342247057
            134382214 1107296256 32967 1364181167</internalNodes>
          <leafValues>
            -8.1605875492095947e-01 5.6237345933914185e-01</leafValues></_>
        <_>
          <internalNodes>
            0 -1 45 -161 1803023851 -150997293 1360132085 -2140350
            1297348471 1465382359 -548145793</internalNodes>
          <leafValues>
            -6.2900209426879883e-01 6.9113463163375854e-01</leafValues></_></weakClassifiers></_>
    <!-- stage 2 -->
    <_>
      <maxWeakCount>5</maxWeakCount>
      <stageThreshold>-8.1812113523483276e-01</stageThreshold>
      <weakClassifiers>
        <_>
          <internalNodes>
            0 -1 26 -248821760 -2118647424 75563264 1598361856
            -1567981050 1082130433 25203328 -676606575</internalNodes>
          <leafValues>
            -7.2073924541473389e-01 6.7475289106369019e-01</leafValues></_>
        <_>
          <internalNodes>
            0 -1 42 -645693288 -1056899072 -2147297912 1292042241
            -2096904001 1073840128 33422 1158905899</internalNodes>
          <leafValues>
            -7.0932656526565552e-01 6.1293309926986694e-01</leafValues></_>
        <_>
          <internalNodes>
            0 -1 151 -804929302 -2013134464 -2147479504 -1778384868
            -1266679794 -922222588 -1870626606 -150830398</internalNodes>
          <leafValues>
            -7.1388894319534302e-01 5.6707823276519775e-01</leafValues></_>
        <_>
          <internalNodes>
            0 -1 77 -2105339685 -2013265919 1073741825 -484617727
            -1609915615 -2139095040 -2147336063 -1148579032</internalNodes>
          <leafValues>
            -6.2213754653930664e-01 6.1044466495513916e-01</leafValues></_>
        <_>
          <internalNodes>
            0 -1 21 -759463285 1139272786 1811675379 2075740923
            2004843738 1433632767 1098073535 -214182758</internalNodes>
          <leafValues>
            -5.6557828187942505e-01 7.0475524663925171e-01</leafValues></_></weakClassifiers></_>
    <!-- stage 3 -->
    <_>
      <maxWeakCount>5</maxWeakCount>
      <stageThreshold>-1.9453058242797852e+00</stageThreshold>
      <weakClassifiers>
        <_>
          <internalNodes>
            0 -1 34 -338 -273678466 -134218302 2080374783 -254
            1177550351 1476391923 -201326593</internalNodes>
          <leafValues>
            -6.0649818181991577e-01 7.0363289117813110e-01</leafValues></_>
        <_>
          <internalNodes>
            0 -1 139 -1290280254 -1031601824 45080 -264039231
            -1845493760 8685570 838873794 -1013987093</internalNodes>
          <leafValues>
            -6.2370997667312622e-01 6.2285262346267700e-01</leafValues></_>
        <_>
          <internalNodes>
            0 -1 73 -230043198 -838860798 -1879048126 -805236710
            20996611 229376 545259906 -1280599397</internalNodes>
          <leafValues>
            -6.7468309402465820e-01 5.6297338008880615e-01</leafValues></_>
        <_>
          <internalNodes>
            0 -1 65 -200552374 -783580664 -2147384960 1359282187
            -2113885997 -1073741823 4243595 1426582207</internalNodes>
          <leafValues>
            -7.2411626577377319e-01 5.5738449096679688e-01</leafValues></_>
        <_>
          <internalNodes>
            0 -1 158 -1827995494 -2063482880 -2147483648 1073955073
            -1878916886 671121410 134381763 -66403951</internalNodes>
          <leafValues>
            -6.2642931938171387e-01 6.2286573648452759e-01</leafValues></_></weakClassifiers></_>
    <!-- stage 4 -->
    <_>
      <maxWeakCount>5</maxWeakCount>
      <stageThreshold>-7.2265011072158813e-01</stageThreshold>
      <weakClassifiers>
        <_>
          <internalNodes>
            0 -1 44 -610543158 -175963005 269484113 1342902273 134251038
            1074266112 98459 1359987403</internalNodes>
          <leafValues>
            -6.9333332777023315e-01 6.1913043260574341e-01</leafValues></_>
        <_>
          <internalNodes>
            0 -1 49 -208596901 -754892792 16957840 1561399552 -636909560
            -1861746688 34783443 -741617459</internalNodes>
          <leafValues>
            -5.7167708873748779e-01 6.3180035352706909e-01</leafValues></_>
        <_>
          <internalNodes>
            0 -1 72 -106172390 -168821300 -226820105 1362361324
            -1758920770 -2059469322 68212733 -854335521</internalNodes>
          <leafValues>
            -4.8845103383064270e-01 6.6263812780380249e-01</leafValues></_>
        <_>
          <internalNodes>
            0 -1 149 -1593109377 -1509554160 134217795 1482047691
            940052936 -1996355584 1077971091 -623974255</internalNodes>
          <leafValues>
            -5.9773713350296021e-01 5.7387739419937134e-01</leafValues></_>
        <_>
          <internalNodes>
            0 -1 88 -2086723437 1784349842 -1879011311 1511067653
            -2146958590 134217736 159531141 -619982631</internalNodes>
          <leafValues>
            -6.9415521621704102e-01 4.8551473021507263e-01</leafValues></_></weakClassifiers></_>
    <!-- stage 5 -->
    <_>
      <maxWeakCount>7</maxWeakCount>
      <stageThreshold>-1.4589720964431763e+00</stageThreshold>
      <weakClassifiers>
        <_>
          <internalNodes>
            0 -1 10 -652748086 1124962308 258 1359151125 21152478 133160
            1082171523 1124843723</internalNodes>
          <leafValues>
            -6.3972288370132446e-01 5.8011996746063232e-01</leafValues></_>
        <_>
          <internalNodes>
            0 -1 144 -1772793666 -984924083 268443672 -234160117
            -2146794998 18 8421555 -208938597</internalNodes>
          <leafValues>
            -5.4603272676467896e-01 5.4013198614120483e-01</leafValues></_>
        <_>
          <internalNodes>
            0 -1 56 -4259365 2139062268 -4227150 -167780367 -16811
            -704938252 -1250044586 -683942568</internalNodes>
          <leafValues>
            -4.7730529308319092e-01 6.1227703094482422e-01</leafValues></_>
        <_>
          <internalNodes>
            0 -1 67 -1416987905 1750880329 67113237 1930154113
            -1870626269 1116110862 17926531 -49624627</internalNodes>
          <leafValues>
            -5.8956408500671387e-01 4.9319502711296082e-01</leafValues></_>
        <_>
          <internalNodes>
            0 -1 63 -281413023 -1144004888 -1011843329 1271659508
            -1719732498 -1068249253 1374909951 -606339653</internalNodes>
          <leafValues>
            -4.0083113312721252e-01 7.5776177644729614e-01</leafValues></_>
        <_>
          <internalNodes>
            0 -1 100 -1048857946 -914014200 16781318 -666546175
            -763328511 -939259904 -1711275904 -136675133</internalNodes>
          <leafValues>
            -5.6389856338500977e-01 5.2417790889739990e-01</leafValues></_>
        <_>
          <internalNodes>
            0 -1 140 -1853106021 -456982015 273 -532168703 1074368542
            1635778560 268599961 -15806195</internalNodes>
          <leafValues>
            -6.4244157075881958e-01 5.3853976726531982e-01</leafValues></_></weakClassifiers></_>
    <!-- stage 6 -->
    <_>
      <maxWeakCount>8</maxWeakCount>
      <stageThreshold>-5.8541548252105713e-01</stageThreshold>
      <weakClassifiers>
        <_>
          <internalNodes>
            0 -1 64 -712814126 1376092252 -2013265395 1342179605
            -2029985069 1048595 302547608 1359391454</internalNodes>
          <leafValues>
            -6.3835614919662476e-01 5.1255059242248535e-01</leafValues></_>
        <_>
          <internalNodes>
            0 -1 60 -711880469 -519466880 268456148 -804450238
            -2138531774 1327140904 -1878484829 -620002425</internalNodes>
          <leafValues>
            -5.7627648115158081e-01 4.2855104804039001e-01</leafValues></_>
        <_>
          <internalNodes>
            0 -1 11 1610719452 295305362 -1995864063 -922550208
            -2012305137 -794591229 274891147 319791283</internalNodes>
          <leafValues>
            -5.4087811708450317e-01 4.7801479697227478e-01</leafValues></_>
        <_>
          <internalNodes>
            0 -1 141 -1584277413 -1073278958 1342247762 1548243016
            -1476394870 -801013760 50372742 -683114321</internalNodes>
          <leafValues>
            -6.1335033178329468e-01 3.8801348209381104e-01</leafValues></_>
        <_>
          <internalNodes>
            0 -1 46 -1766171469 2138668896 -285819596 2138402577
            2144796043 -536904323 -1623720096 -174934025</internalNodes>
          <leafValues>
            -4.5272818207740784e-01 5.2672755718231201e-01</leafValues></_>
        <_>
          <internalNodes>
            0 -1 113 -805187622 -2130673654 -2147483424 1342505235
            -1727981494 -1744830456 -1601982125 -503127517</internalNodes>
          <leafValues>
            -5.6572377681732178e-01 4.1599372029304504e-01</leafValues></_>
        <_>
          <internalNodes>
            0 -1 38 -353146371 -2090337798 -16781454 -340122374
            -402933825 -159948801 -847866434 1463471226</internalNodes>
          <leafValues>
            -4.6210181713104248e-01 5.4740160703659058e-01</leafValues></_>
        <_>
          <internalNodes>
            0 -1 135 -112078562 -2080309231 -1845440366 2061435027
            729110 16777216 1210126913 1143177731</internalNodes>
          <leafValues>
            -8.3938592672348022e-01 2.9799866676330566e-01</leafValues></_></weakClassifiers></_>
    <!-- stage 7 -->
    <_>
      <maxWeakCount>8</maxWeakCount>
      <stageThreshold>-1.2552171945571899e+00</stageThreshold>
      <weakClassifiers>
        <_>
          <internalNodes>
            0 -1 32 -652608638 -1862168192 1073758338 -1325068269
            -1584822272 1241546754 -2104327568 -1248081713</internalNodes>
          <leafValues>
            -5.6770831346511841e-01 5.0822371244430542e-01</leafValues></_>
        <_>
          <internalNodes>
            0 -1 146 -2113182753 -1469628416 268615703 -360556544
            -1341605746 -1736431607 131219 -67448567</internalNodes>
          <leafValues>
            -5.1159799098968506e-01 4.6668511629104614e-01</leafValues></_>
        <_>
          <internalNodes>
            0 -1 9 -1968267594 -705929308 1743836645 1507349597
            1047459826 -310544570 18347511 -818948641</internalNodes>
          <leafValues>
            -4.5773726701736450e-01 5.2752947807312012e-01</leafValues></_>
        <_>
          <internalNodes>
            0 -1 1 -518465394 -452784112 -1946156707 151716001 115116
            -1037959119 42541188 36309080</internalNodes>
          <leafValues>
            -6.5833562612533569e-01 3.7612551450729370e-01</leafValues></_>
        <_>
          <internalNodes>
            0 -1 78 -640077614 -578582463 353571101 -364670841
            -2146787310 -929005568 -1987723133 -920923510</internalNodes>
          <leafValues>
            -4.9234238266944885e-01 4.5383509993553162e-01</leafValues></_>
        <_>
          <internalNodes>
            0 -1 142 -1723690565 -928833200 268582928 1980891412
            -1744793557 1342832675 105172 -10878038</internalNodes>
          <leafValues>
            -6.2715655565261841e-01 3.5823836922645569e-01</leafValues></_>
        <_>
          <internalNodes>
            0 -1 70 -1323116769 1476599856 -1879047680 -1620901184
            -402487145 -654082047 -1939226621 1348976796</internalNodes>
          <leafValues>
            -5.1368302106857300e-01 4.5472249388694763e-01</leafValues></_>
        <_>
          <internalNodes>
            0 -1 14 -1055723218 -787267534 537135112 -1593835455
            -1605844805 -1699708253 -1732108182 155226691</internalNodes>
          <leafValues>
            -4.7324979305267334e-01 5.1557123661041260e-01</leafValues></_></weakClassifiers></_>
    <!-- stage 8 -->
    <_>
      <maxWeakCount>9</maxWeakCount>
      <stageThreshold>-9.5989847183227539e-01</stageThreshold>
      <weakClassifiers>
        <_>
          <internalNodes>
            0 -1 57 293835244 -862484477 306446358 1347650177 269199978
            1086883842 32947 1460644365</internalNodes>
          <leafValues>
            -6.9636964797973633e-01 4.7108712792396545e-01</leafValues></_>
        <_>
          <internalNodes>
            0 -1 51 289652986 -921599344 17369101 328532433 -267353398
            -1056796672 -938827637 -805052340</internalNodes>
          <leafValues>
            -4.3936088681221008e-01 5.0166082382202148e-01</leafValues></_>
        <_>
          <internalNodes>
            0 -1 43 -267631472 2038433110 -1476345472 160628764
            -2146791022 11051009 -1693652977 422218408</internalNodes>
          <leafValues>
            -5.7961004972457886e-01 4.1460627317428589e-01</leafValues></_>
        <_>
          <internalNodes>
            0 -1 53 2147146075 1919318314 2012893043 -1171171845
            1593720586 1441988510 1446139899 -79964801</internalNodes>
          <leafValues>
            -4.2782115936279297e-01 5.1741433143615723e-01</leafValues></_>
        <_>
          <internalNodes>
            0 -1 150 -385492780 -393510748 -1006620670 -90075861
            -267411379 -1979645688 32916 -75295205</internalNodes>
          <leafValues>
            -5.8720618486404419e-01 3.9135512709617615e-01</leafValues></_>
        <_>
          <internalNodes>
            0 -1 66 -374638617 -738502676 2113863537 -769697283
            -277620830 -973668489 166918143 -720445953</internalNodes>
          <leafValues>
            -3.7195646762847900e-01 6.3740450143814087e-01</leafValues></_>
        <_>
          <internalNodes>
            0 -1 95 -787683158 -1048501999 16843089 184811905 1342177808
            -2130403320 8917250 -565262632</internalNodes>
          <leafValues>
            -5.1671022176742554e-01 4.6270075440406799e-01</leafValues></_>
        <_>
          <internalNodes>
            0 -1 20 -1597865678 1376814281 -2145378038 1562378241
            -2117472127 8556706 134840840 860080286</internalNodes>
          <leafValues>
            -6.0820519924163818e-01 3.8727009296417236e-01</leafValues></_>
        <_>
          <internalNodes>
            0 -1 83 -1869885415 -1912471488 33730 1409892353 -209649150
            -402489336 -1853652863 1368234153</internalNodes>
          <leafValues>
            -6.5501326322555542e-01 3.7172308564186096e-01</leafValues></_></weakClassifiers></_>
    <!-- stage 9 -->
    <_>
      <maxWeakCount>10</maxWeakCount>
      <stageThreshold>-1.2250343561172485e+00</stageThreshold>
      <weakClassifiers>
        <_>
          <internalNodes>
            0 -1 75 -1074113163 -16889987 -1073741825 1853513589
            -1879845033 -134217857 -1883242531 -1623583363</internalNodes>
          <leafValues>
            -4.8974943161010742e-01 5.2971577644348145e-01</leafValues></_>
        <_>
          <internalNodes>
            0 -1 87 -1077936647 -613843221 1861975807 -419299331
            -609750561 -1922334857 1192427005 -637468833</internalNodes>
          <leafValues>
            -3.0161583423614502e-01 6.5518558025360107e-01</leafValues></_>
        <_>
          <internalNodes>
            0 -1 50 1560359118 -469532527 269062496 1342275587
            -108949178 32896 1342362305 1359915144</internalNodes>
          <leafValues>
            -8.6053180694580078e-01 2.6158198714256287e-01</leafValues></_>
        <_>
          <internalNodes>
            0 -1 2 -10239329 -142672144 1995755767 -1011321670 398179748
            -404488910 -988302918 -619723526</internalNodes>
          <leafValues>
            -3.3684691786766052e-01 6.3964080810546875e-01</leafValues></_>
        <_>
          <internalNodes>
            0 -1 143 1040400596 134381716 1083481 1376026985 -2096610674
            -2004811776 17072137 -1423021287</internalNodes>
          <leafValues>
            -6.6573828458786011e-01 3.3810147643089294e-01</leafValues></_>
        <_>
          <internalNodes>
            0 -1 120 285952394 -1001258878 4210786 -67108734 134848728
            -1157594427 562561195 1779065089</internalNodes>
          <leafValues>
            -5.7822448015213013e-01 3.7383371591567993e-01</leafValues></_>
        <_>
          <internalNodes>
            0 -1 13 1937969314 -637468528 1090536466 427987584 539003466
            -1054851072 164547 -1353784951</internalNodes>
          <leafValues>
            -6.2541913986206055e-01 3.3353155851364136e-01</leafValues></_>
        <_>
          <internalNodes>
            0 -1 93 -1798796848 960774160 -1862254499 1897136129
            142671992 -670433280 -2010938706 -1386872280</internalNodes>
          <leafValues>
            -4.9641928076744080e-01 4.9213346838951111e-01</leafValues></_>
        <_>
          <internalNodes>
            0 -1 16 -1638445421 1877933600 -286300427 2104827360
            -537212769 1979711352 1420048347 -537227017</internalNodes>
          <leafValues>
            -3.0831062793731689e-01 7.3642063140869141e-01</leafValues></_>
        <_>
          <internalNodes>
            0 -1 116 -787098165 1241622721 269533235 -65666814
            1076002821 -1391984640 -2109734784 1393283096</internalNodes>
          <leafValues>
            -7.0231360197067261e-01 3.6820420622825623e-01</leafValues></_></weakClassifiers></_>
    <!-- stage 10 -->
    <_>
      <maxWeakCount>7</maxWeakCount>
      <stageThreshold>-1.1285548210144043e+00</stageThreshold>
      <weakClassifiers>
        <_>
          <internalNodes>
            0 -1 138 -2029850438 -2113748976 1677725697 -229982123
            8454594 295042 -654169712 1596645436</internalNodes>
          <leafValues>
            -6.0493826866149902e-01 4.6708464622497559e-01</leafValues></_>
        <_>
          <internalNodes>
            0 -1 82 -1724235433 1107501188 -2143223216 -2146631679
            537502290 -1719500672 -2097131133 1132104069</internalNodes>
          <leafValues>
            -5.8656156063079834e-01 3.4750470519065857e-01</leafValues></_>
        <_>
          <internalNodes>
            0 -1 137 -184053383 -649003007 402653244 1938100297
            -1325363014 -1744306176 -801110015 809590795</internalNodes>
          <leafValues>
            -5.3088772296905518e-01 4.2401206493377686e-01</leafValues></_>
        <_>
          <internalNodes>
            0 -1 105 1596118384 -24191517 -1157963788 -36975371
            128900921 -421199873 345729000 -181821905</internalNodes>
          <leafValues>
            -4.4643476605415344e-01 4.6146640181541443e-01</leafValues></_>
        <_>
          <internalNodes>
            0 -1 126 -1585244992 -889060823 33588 -188203003 547358742
            -931102648 186436 1508527380</internalNodes>
          <leafValues>
            -7.5818818807601929e-01 2.6767408847808838e-01</leafValues></_>
        <_>
          <internalNodes>
            0 -1 147 -2028526659 -2046803967 1342177287 953827377
            -1844395302 -384696192 -686513920 -1306070903</internalNodes>
          <leafValues>
            -6.1254328489303589e-01 3.2993429899215698e-01</leafValues></_>
        <_>
          <internalNodes>
            0 -1 48 -721265540 -801046512 17891589 -1869348736
            1889724931 -1342152704 25887456 -811892187</internalNodes>
          <leafValues>
            -6.2086164951324463e-01 3.1311380863189697e-01</leafValues></_></weakClassifiers></_>
    <!-- stage 11 -->
    <_>
      <maxWeakCount>10</maxWeakCount>
      <stageThreshold>-9.4486826658248901e-01</stageThreshold>
      <weakClassifiers>
        <_>
          <internalNodes>
            0 -1 58 -795749925 -938376445 218169792 1109196817
            -1325359102 1214253066 -2134736704 1879212747</internalNodes>
          <leafValues>
            -6.3934427499771118e-01 4.5945945382118225e-01</leafValues></_>
        <_>
          <internalNodes>
            0 -1 86 -108329409 -1066655735 19400833 1835143197
            -2011516135 -796254047 595610242 386128271</internalNodes>
          <leafValues>
            -4.7341796755790710e-01 3.9294633269309998e-01</leafValues></_>
        <_>
          <internalNodes>
            0 -1 133 -1079288709 -298852378 -83886351 -1789395595
            2009069233 1725390676 1425831803 -677708322</internalNodes>
          <leafValues>
            -3.3233889937400818e-01 5.5194252729415894e-01</leafValues></_>
        <_>
          <internalNodes>
            0 -1 22 -1139693365 1343292313 402718736 319406152
            1627914504 808976425 571998616 -1277588502</internalNodes>
          <leafValues>
            -5.0351345539093018e-01 3.8878795504570007e-01</leafValues></_>
        <_>
          <internalNodes>
            0 -1 28 -1683071591 -574726288 973076005 2102914516
            263768347 -556965932 1609219843 -2370344</internalNodes>
          <leafValues>
            -4.4563212990760803e-01 4.6299463510513306e-01</leafValues></_>
        <_>
          <internalNodes>
            0 -1 5 -1478312598 1446645498 1186914155 1161624667
            2104868811 -545267865 880467400 -540041634</internalNodes>
          <leafValues>
            -3.3949738740921021e-01 6.1994022130966187e-01</leafValues></_>
        <_>
          <internalNodes>
            0 -1 80 -3453813 -5382160 -83886082 1086946556 152562783
            -1506320793 -12650529 -938355337</internalNodes>
          <leafValues>
            -4.3706142902374268e-01 4.8145285248756409e-01</leafValues></_>
        <_>
          <internalNodes>
            0 -1 98 -1593613848 1214058628 352354651 1397527173
            -889192095 -1442741880 -1736236926 2107813776</internalNodes>
          <leafValues>
            -5.3923046588897705e-01 3.9171898365020752e-01</leafValues></_>
        <_>
          <internalNodes>
            0 -1 96 -1148854178 -1794432894 537133065 -1672904627
            16877704 -1204469629 -2147432369 -993410546</internalNodes>
          <leafValues>
            -4.6317028999328613e-01 4.9842941761016846e-01</leafValues></_>
        <_>
          <internalNodes>
            0 -1 79 -1293729313 -1031405177 1073908096 1091117188
            -2063431599 -1602191360 -1559371769 2030616969</internalNodes>
          <leafValues>
            -6.2256413698196411e-01 3.4465572237968445e-01</leafValues></_></weakClassifiers></_>
    <!-- stage 12 -->
    <_>
      <maxWeakCount>9</maxWeakCount>
      <stageThreshold>-8.7386721372604370e-01</stageThreshold>
      <weakClassifiers>
        <_>
          <internalNodes>
            0 -1 39 -36990568 -582148 1458962236 167140689 -1750957688
            430490659 146071548 506664166</internalNodes>
          <leafValues>
            -3.7974682450294495e-01 5.1509767770767212e-01</leafValues></_>
        <_>
          <internalNodes>
            0 -1 157 -1828563204 1831907585 1074266324 1914572819
            -1597323106 -1199570941 -738172742 -1158267</internalNodes>
          <leafValues>
            -4.2523461580276489e-01 4.1078060865402222e-01</leafValues></_>
        <_>
          <internalNodes>
            0 -1 108 -1854574197 1334136833 1073971397 80249120
            -1698660106 -1072791542 1728086313 -625833491</internalNodes>
          <leafValues>
            -4.7852894663810730e-01 3.6341828107833862e-01</leafValues></_>
        <_>
          <internalNodes>
            0 -1 24 -269049878 1407603756 -144835151 -1695083137
            1998520303 1467351039 -1646797313 -41186049</internalNodes>
          <leafValues>
            -2.9679232835769653e-01 6.2812393903732300e-01</leafValues></_>
        <_>
          <internalNodes>
            0 -1 132 869880370 1119945344 3 -728793087 572797472
            -637501432 -1157493503 1141951089</internalNodes>
          <leafValues>
            -7.6890653371810913e-01 2.8130668401718140e-01</leafValues></_>
        <_>
          <internalNodes>
            0 -1 61 -1423369217 -272783366 -268440140 1266532341
            917842477 -1076560522 -17530882 182804030</internalNodes>
          <leafValues>
            -4.2262777686119080e-01 4.5630395412445068e-01</leafValues></_>
        <_>
          <internalNodes>
            0 -1 97 -274009872 -1712660483 -18088963 -2014611203
            2008284540 -836509705 1043922431 -884877345</internalNodes>
          <leafValues>
            -4.1588205099105835e-01 4.9279305338859558e-01</leafValues></_>
        <_>
          <internalNodes>
            0 -1 31 -238926525 1888026636 268567892 -1663631155
            537022532 -2054963196 1212291793 -1685405563</internalNodes>
          <leafValues>
            -5.2740639448165894e-01 3.8520374894142151e-01</leafValues></_>
        <_>
          <internalNodes>
            0 -1 89 -1593083829 808321040 -2130706231 313688193
            -2013034176 537692704 -2120187501 1519571373</internalNodes>
          <leafValues>
            -6.1048042774200439e-01 3.8062599301338196e-01</leafValues></_></weakClassifiers></_>
    <!-- stage 13 -->
    <_>
      <maxWeakCount>10</maxWeakCount>
      <stageThreshold>-1.0676167011260986e+00</stageThreshold>
      <weakClassifiers>
        <_>
          <internalNodes>
            0 -1 103 -2012805665 -1023410048 80 8851585 -1308587983
            134905856 1627427575 1694722235</internalNodes>
          <leafValues>
            -5.0561797618865967e-01 4.6623793244361877e-01</leafValues></_>
        <_>
          <internalNodes>
            0 -1 156 -1341954615 -2147286886 134219408 1375797593
            849535042 -1853847384 42520827 -584179496</internalNodes>
          <leafValues>
            -4.2198574542999268e-01 3.9844194054603577e-01</leafValues></_>
        <_>
          <internalNodes>
            0 -1 0 89295038 -1982823423 -1849605111 -1620377600
            -486235707 276922499 -1065312256 1126318216</internalNodes>
          <leafValues>
            -5.8049857616424561e-01 3.4660071134567261e-01</leafValues></_>
        <_>
          <internalNodes>
            0 -1 6 -809593661 1643910701 -1916930191 903110100
            -1103430174 -302154385 -448733697 -975176321</internalNodes>
          <leafValues>
            -3.9497607946395874e-01 4.6358087658882141e-01</leafValues></_>
        <_>
          <internalNodes>
            0 -1 15 -716877582 -1002073920 1484914960 1377665296
            -1869459454 -266305397 -1878883901 -863303542</internalNodes>
          <leafValues>
            -5.3902906179428101e-01 3.3929002285003662e-01</leafValues></_>
        <_>
          <internalNodes>
            0 -1 55 -796809592 -243236597 83974275 -728956917 1895833654
            -1732567007 -666644349 78041730</internalNodes>
          <leafValues>
            -4.7229179739952087e-01 3.9109513163566589e-01</leafValues></_>
        <_>
          <internalNodes>
            0 -1 71 -1656574835 -1844993008 -2147449852 -444583295
            1078108288 673351713 -1609220088 891503773</internalNodes>
          <leafValues>
            -5.8208352327346802e-01 3.4000349044799805e-01</leafValues></_>
        <_>
          <internalNodes>
            0 -1 17 -1636610597 -805539856 -50331846 1601658864
            -562259042 1987575677 491182039 -1787560451</internalNodes>
          <leafValues>
            -3.7745764851570129e-01 5.2202081680297852e-01</leafValues></_>
        <_>
          <internalNodes>
            0 -1 115 -1389803517 1019198708 -78083 -566267908
            -1073916386 -310378628 -25201155 -1887973761</internalNodes>
          <leafValues>
            -3.4015941619873047e-01 5.7005399465560913e-01</leafValues></_>
        <_>
          <internalNodes>
            0 -1 123 -117187616 -687798256 16793601 2034892830 269049868
            1384153284 -1467801402 2042503721</internalNodes>
          <leafValues>
            -4.7729212045669556e-01 4.3400168418884277e-01</leafValues></_></weakClassifiers></_>
    <!-- stage 14 -->
    <_>
      <maxWeakCount>8</maxWeakCount>
      <stageThreshold>-6.5587443113327026e-01</stageThreshold>
      <weakClassifiers>
        <_>
          <internalNodes>
            0 -1 131 -116322098 -1455423358 -1606400944 1921335380
            524560 -955709432 554713105 2010447883</internalNodes>
          <leafValues>
            -5.9861594438552856e-01 4.3707093596458435e-01</leafValues></_>
        <_>
          <internalNodes>
            0 -1 23 -242908309 1095958528 286294848 487129230 1090604210
            -2004844414 1644167697 -385094648</internalNodes>
          <leafValues>
            -4.1920760273933411e-01 4.0291297435760498e-01</leafValues></_>
        <_>
          <internalNodes>
            0 -1 110 538779724 -871972726 82496 -804351999 17346576
            176308354 1879083010 1560975585</internalNodes>
          <leafValues>
            -7.3306816816329956e-01 2.5566503405570984e-01</leafValues></_>
        <_>
          <internalNodes>
            0 -1 59 -1618799247 1359184857 -2130505655 -1853652983
            -712971994 1351090318 671515081 -74790691</internalNodes>
          <leafValues>
            -4.2699557542800903e-01 4.0016642212867737e-01</leafValues></_>
        <_>
          <internalNodes>
            0 -1 118 520118484 -774832122 1098940417 1426674076
            -1166016469 -1458863744 -2012733558 1166390433</internalNodes>
          <leafValues>
            -4.3598821759223938e-01 3.9280784130096436e-01</leafValues></_>
        <_>
          <internalNodes>
            0 -1 40 1955955722 1229230160 1157635349 -1055387384
            336527536 18092168 41949366 -1476663254</internalNodes>
          <leafValues>
            -5.7174569368362427e-01 3.4423142671585083e-01</leafValues></_>
        <_>
          <internalNodes>
            0 -1 91 -2134747747 1619153041 230752270 -1069350656
            1703526466 -1996390398 -486383471 490097289</internalNodes>
          <leafValues>
            -6.6519016027450562e-01 3.0114418268203735e-01</leafValues></_>
        <_>
          <internalNodes>
            0 -1 106 -72616492 -559198641 -1610613003 350477949
            -1355057328 -286785674 2099828597 -310255819</internalNodes>
          <leafValues>
            -4.0764367580413818e-01 4.7567638754844666e-01</leafValues></_></weakClassifiers></_>
    <!-- stage 15 -->
    <_>
      <maxWeakCount>8</maxWeakCount>
      <stageThreshold>-4.8035025596618652e-01</stageThreshold>
      <weakClassifiers>
        <_>
          <internalNodes>
            0 -1 130 -1073741845 -1880096787 -1795227930 1358855679
            939278663 -444596361 2004874743 1879533821</internalNodes>
          <leafValues>
            -4.2051282525062561e-01 4.6611571311950684e-01</leafValues></_>
        <_>
          <internalNodes>
            0 -1 68 -1813884459 1602769301 5390399 1845624848
            -1610536430 403046657 -1870003360 -1692467200</internalNodes>
          <leafValues>
            -5.7926064729690552e-01 2.9301589727401733e-01</leafValues></_>
        <_>
          <internalNodes>
            0 -1 8 -1887715954 1149048308 -16875552 -277554100 236912615
            -137920513 -598548993 -409731873</internalNodes>
          <leafValues>
            -2.8850436210632324e-01 5.7187294960021973e-01</leafValues></_>
        <_>
          <internalNodes>
            0 -1 52 -11481554 -373014503 -2079522799 -1727254479
            1665241930 -1608449910 -1727322112 606601372</internalNodes>
          <leafValues>
            -6.1767417192459106e-01 2.5708967447280884e-01</leafValues></_>
        <_>
          <internalNodes>
            0 -1 117 1059790544 -549454167 1877999285 -620920855
            -1350632308 -1971355790 -318966545 -849699661</internalNodes>
          <leafValues>
            -3.6427769064903259e-01 4.7258198261260986e-01</leafValues></_>
        <_>
          <internalNodes>
            0 -1 121 -1792685110 -839680084 -1629552902 -33563274 -162
            -721649801 -84412445 -904388739</internalNodes>
          <leafValues>
            -3.8451656699180603e-01 4.8523294925689697e-01</leafValues></_>
        <_>
          <internalNodes>
            0 -1 74 1327341905 -1059192561 1140917504 1155334400
            -1593788413 344196097 1921688198 1460857476</internalNodes>
          <leafValues>
            -6.3719075918197632e-01 3.0335724353790283e-01</leafValues></_>
        <_>
          <internalNodes>
            0 -1 94 -1206959712 -1047264096 -1073440467 423035394
            -1870626670 -486375164 704677888 1759601536</internalNodes>
          <leafValues>
            -6.3269060850143433e-01 2.8548684716224670e-01</leafValues></_></weakClassifiers></_>
    <!-- stage 16 -->
    <_>
      <maxWeakCount>11</maxWeakCount>
      <stageThreshold>-5.0926434993743896e-01</stageThreshold>
      <weakClassifiers>
        <_>
          <internalNodes>
            0 -1 155 -1968504393 783179567 2130706167 788463357
            1333706470 -293666818 511639167 -2425420</internalNodes>
          <leafValues>
            -3.0812853574752808e-01 5.2567696571350098e-01</leafValues></_>
        <_>
          <internalNodes>
            0 -1 69 1397981911 177668481 17826873 -804503154 -2004830110
            152600716 100696247 857399466</internalNodes>
          <leafValues>
            -6.4808011054992676e-01 2.5574979186058044e-01</leafValues></_>
        <_>
          <internalNodes>
            0 -1 7 -976903670 942670116 18907204 1090682912 -1877999450
            235413541 -1467186165 967690824</internalNodes>
          <leafValues>
            -4.9705556035041809e-01 3.4599798917770386e-01</leafValues></_>
        <_>
          <internalNodes>
            0 -1 84 -151300357 520027754 520058851 1593810674 1609948912
            -1089179663 1551334895 -75573286</internalNodes>
          <leafValues>
            -3.2384601235389709e-01 5.3192508220672607e-01</leafValues></_>
        <_>
          <internalNodes>
            0 -1 54 -1119862322 1108345384 16777620 1543864448 134254595
            -2147450880 34819 -301301607</internalNodes>
          <leafValues>
            -5.9915053844451904e-01 2.7715846896171570e-01</leafValues></_>
        <_>
          <internalNodes>
            0 -1 29 -335610173 -1114490 -1157660701 1610473471
            -1074807580 -992833842 1467121599 -1065428234</internalNodes>
          <leafValues>
            -3.6655372381210327e-01 5.0296032428741455e-01</leafValues></_>
        <_>
          <internalNodes>
            0 -1 154 -787345080 276889865 -1877929895 -784199534
            1091567651 1207960073 8503947 655557380</internalNodes>
          <leafValues>
            -4.6783447265625000e-01 3.8371464610099792e-01</leafValues></_>
        <_>
          <internalNodes>
            0 -1 119 -1765129590 -468533111 1073807722 -934111836
            -1333677498 1376911744 964823294 1417691457</internalNodes>
          <leafValues>
            -7.1341741085052490e-01 2.4305504560470581e-01</leafValues></_>
        <_>
          <internalNodes>
            0 -1 128 286644994 209782789 268439824 1074341905 185604480
            -1862270432 1627664817 -1895161207</internalNodes>
          <leafValues>
            -6.5575271844863892e-01 2.9505190253257751e-01</leafValues></_>
        <_>
          <internalNodes>
            0 -1 124 -1396624156 1090617344 -2147467255 1237942661
            1126220314 33557250 671088640 201195521</internalNodes>
          <leafValues>
            -6.4056742191314697e-01 3.0822694301605225e-01</leafValues></_>
        <_>
          <internalNodes>
            0 -1 37 -2116771579 2048016898 -1056273912 -418637686
            34242691 168886305 -937260408 963352615</internalNodes>
          <leafValues>
            -5.3335940837860107e-01 3.6088180541992188e-01</leafValues></_></weakClassifiers></_>
    <!-- stage 17 -->
    <_>
      <maxWeakCount>11</maxWeakCount>
      <stageThreshold>-7.0878911018371582e-01</stageThreshold>
      <weakClassifiers>
        <_>
          <internalNodes>
            0 -1 122 1835998551 464400238 2147417727 -33964033 -43321
            -285212738 2147401599 2004795244</internalNodes>
          <leafValues>
            -3.2067510485649109e-01 4.9023091793060303e-01</leafValues></_>
        <_>
          <internalNodes>
            0 -1 85 -643923750 -2029977468 1409618129 -1332936575
            -1845476845 1275728392 277561382 -376764273</internalNodes>
          <leafValues>
            -4.1963896155357361e-01 3.7827301025390625e-01</leafValues></_>
        <_>
          <internalNodes>
            0 -1 112 1342264787 -939487088 268435880 67207172
            -2138502912 -1014984704 209773187 185761953</internalNodes>
          <leafValues>
            -6.2221676111221313e-01 2.5009369850158691e-01</leafValues></_>
        <_>
          <internalNodes>
            0 -1 27 -686075771 1537965832 -21037536 334982992 -809648575
            -839942157 1606303631 -1575173</internalNodes>
          <leafValues>
            -3.0638590455055237e-01 5.3781706094741821e-01</leafValues></_>
        <_>
          <internalNodes>
            0 -1 92 -1820036977 109592771 16777488 1364230405
            -2076147646 -2130706294 -1564336117 -116749527</internalNodes>
          <leafValues>
            -3.9748278260231018e-01 3.8998797535896301e-01</leafValues></_>
        <_>
          <internalNodes>
            0 -1 76 272757533 -633241336 150998029 1212318213 21006746
            -1047625704 1224736780 -985355764</internalNodes>
          <leafValues>
            -4.6361476182937622e-01 3.8163462281227112e-01</leafValues></_>
        <_>
          <internalNodes>
            0 -1 101 272748984 1094778880 -570359664 -574275575
            -502779725 -1559158614 -394149109 1905420937</internalNodes>
          <leafValues>
            -4.3910729885101318e-01 4.4421002268791199e-01</leafValues></_>
        <_>
          <internalNodes>
            0 -1 111 285214837 1745948928 18890826 1087111232
            -1170206085 -914357616 1258347299 2102103177</internalNodes>
          <leafValues>
            -6.4035350084304810e-01 2.9638609290122986e-01</leafValues></_>
        <_>
          <internalNodes>
            0 -1 153 -1073659433 8585234 285278545 1480917129 836304896
            58728576 -2013255543 -255800981</internalNodes>
          <leafValues>
            -4.7834154963493347e-01 3.7964272499084473e-01</leafValues></_>
        <_>
          <internalNodes>
            0 -1 18 -679637281 -37749399 1795145477 -12190411 -889421667
            492142077 1551273677 -586746506</internalNodes>
          <leafValues>
            -3.0253452062606812e-01 6.2697964906692505e-01</leafValues></_>
        <_>
          <internalNodes>
            0 -1 62 718407332 420545025 -1610612283 1208221696 939630648
            -257294199 -1618917180 1512085514</internalNodes>
          <leafValues>
            -5.0231921672821045e-01 3.8922569155693054e-01</leafValues></_></weakClassifiers></_>
    <!-- stage 18 -->
    <_>
      <maxWeakCount>10</maxWeakCount>
      <stageThreshold>-1.2156689167022705e+00</stageThreshold>
      <weakClassifiers>
        <_>
          <internalNodes>
            0 -1 129 -1359015621 501161305 -1090519053 225385853
            -1359052970 -715162250 -1216424587 1304481020</internalNodes>
          <leafValues>
            -3.2903227210044861e-01 4.8722466826438904e-01</leafValues></_>
        <_>
          <internalNodes>
            0 -1 4 -152066390 -194605990 -142671899 -990568459 628522983
            -448270483 -2055807496 -823554562</internalNodes>
          <leafValues>
            -2.4018926918506622e-01 5.7066315412521362e-01</leafValues></_>
        <_>
          <internalNodes>
            0 -1 127 -720801518 -2087616393 1686247449 -581926903
            2055913634 -310345600 -233688573 1210196759</internalNodes>
          <leafValues>
            -4.4250240921974182e-01 3.5520505905151367e-01</leafValues></_>
        <_>
          <internalNodes>
            0 -1 109 860979843 1866465290 537411601 147980457
            -1476353725 -1979285488 420126776 1653274639</internalNodes>
          <leafValues>
            -6.4182323217391968e-01 2.5130054354667664e-01</leafValues></_>
        <_>
          <internalNodes>
            0 -1 25 4587942 1524171396 268436753 1493499907 1518362627
            1621164041 1087667 -999683710</internalNodes>
          <leafValues>
            -5.9523755311965942e-01 2.5347688794136047e-01</leafValues></_>
        <_>
          <internalNodes>
            0 -1 35 -1108966083 873066144 787316133 1428367036
            -1208518766 -681805828 -294381748 -1404494371</internalNodes>
          <leafValues>
            -3.0211454629898071e-01 5.6974107027053833e-01</leafValues></_>
        <_>
          <internalNodes>
            0 -1 47 -637103415 1913131232 -2130640894 1347485914
            684247042 1090650146 557219 -225451959</internalNodes>
          <leafValues>
            -5.5384337902069092e-01 3.1473088264465332e-01</leafValues></_>
        <_>
          <internalNodes>
            0 -1 125 848531849 876642370 1376129041 336973905 2013796426
            897679488 471861251 1276908067</internalNodes>
          <leafValues>
            -6.4993125200271606e-01 2.7011927962303162e-01</leafValues></_>
        <_>
          <internalNodes>
            0 -1 104 2013513060 1108148514 536871251 -578779128
            276840710 -393371519 17352706 -6056426</internalNodes>
          <leafValues>
            -5.1339143514633179e-01 3.7885057926177979e-01</leafValues></_>
        <_>
          <internalNodes>
            0 -1 36 419754753 -1005191037 83955718 1293467724
            -2104688328 -2002714238 -934991838 176308742</internalNodes>
          <leafValues>
            -5.2159410715103149e-01 3.6490377783775330e-01</leafValues></_></weakClassifiers></_>
    <!-- stage 19 -->
    <_>
      <maxWeakCount>11</maxWeakCount>
      <stageThreshold>-7.5933331251144409e-01</stageThreshold>
      <weakClassifiers>
        <_>
          <internalNodes>
            0 -1 102 184586250 1140949120 1107296474 -395656910
            302656266 -745799614 -1744797150 1409492992</internalNodes>
          <leafValues>
            -6.7567569017410278e-01 3.9912918210029602e-01</leafValues></_>
        <_>
          <internalNodes>
            0 -1 114 -553877797 -1157730332 -196763 804872053 -738429244
            -268636298 -1657495561 -811687979</internalNodes>
          <leafValues>
            -3.5972028970718384e-01 4.1197201609611511e-01</leafValues></_>
        <_>
          <internalNodes>
            0 -1 152 -1112823075 -286540178 -16793617 -621805825
            2147479125 1702853467 -984092705 -646250626</internalNodes>
          <leafValues>
            -3.2972562313079834e-01 4.6770283579826355e-01</leafValues></_>
        <_>
          <internalNodes>
            0 -1 19 -222712658 -277299208 -1409482891 -2084652549
            -140481347 -1308770320 523337706 619716575</internalNodes>
          <leafValues>
            -3.7060779333114624e-01 4.3207466602325439e-01</leafValues></_>
        <_>
          <internalNodes>
            0 -1 136 -169440578 -336965641 2145365668 1844019199
            -272703697 -556335118 503134573 -930676877</internalNodes>
          <leafValues>
            -3.4168338775634766e-01 5.0931233167648315e-01</leafValues></_>
        <_>
          <internalNodes>
            0 -1 145 1882460177 285655449 25166176 403783680 -1459255159
            -394264568 4458929 1158482472</internalNodes>
          <leafValues>
            -5.9970551729202271e-01 2.9798680543899536e-01</leafValues></_>
        <_>
          <internalNodes>
            0 -1 134 -1860841329 196756 65553 -1803251707 -1996479739
            -952106984 141376 1117624714</internalNodes>
          <leafValues>
            -6.6999423503875732e-01 2.5829300284385681e-01</leafValues></_>
        <_>
          <internalNodes>
            0 -1 90 1493546074 -799850495 570492941 -1073479424
            407601555 -1591705461 -1241325432 -931028854</internalNodes>
          <leafValues>
            -4.7568893432617188e-01 3.7069064378738403e-01</leafValues></_>
        <_>
          <internalNodes>
            0 -1 107 -1878846908 1682194448 9502720 1338441996
            -1711208195 -1341652736 -1551818201 281981643</internalNodes>
          <leafValues>
            -4.8033580183982849e-01 4.0386357903480530e-01</leafValues></_>
        <_>
          <internalNodes>
            0 -1 81 -16902 -176861238 -323 -278724754 -606760
            -1535742778 1861734379 -522727444</internalNodes>
          <leafValues>
            -3.6063450574874878e-01 5.6105887889862061e-01</leafValues></_>
        <_>
          <internalNodes>
            0 -1 3 -261900394 -485481904 -1912602469 1175355521
            -2000386048 -794672592 1107953962 1242399148</internalNodes>
          <leafValues>
            -5.2363336086273193e-01 3.7514683604240417e-01</leafValues></_></weakClassifiers></_></stages>
  <features>
    <_>
      <rect>
        0 1 6 29</rect></_>
    <_>
      <rect>
        0 6 6 25</rect></_>
    <_>
      <rect>
        0 14 6 24</rect></_>
    <_>
      <rect>
        0 21 6 22</rect></_>
    <_>
      <rect>
        0 22 4 22</rect></_>
    <_>
      <rect>
        0 23 4 18</rect></_>
    <_>
      <rect>
        0 32 5 20</rect></_>
    <_>
      <rect>
        0 32 6 29</rect></_>
    <_>
      <rect>
        0 33 4 18</rect></_>
    <_>
      <rect>
        0 36 5 16</rect></_>
    <_>
      <rect>
        0 38 6 11</rect></_>
    <_>
      <rect>
        0 41 5 15</rect></_>
    <_>
      <rect>
        0 41 6 11</rect></_>
    <_>
      <rect>
        0 47 3 7</rect></_>
    <_>
      <rect>
        0 52 4 18</rect></_>
    <_>
      <rect>
        0 53 2 3</rect></_>
    <_>
      <rect>
        0 54 1 3</rect></_>
    <_>
      <rect>
        0 54 1 4</rect></_>
    <_>
      <rect>
        0 58 1 2</rect></_>
    <_>
      <rect>
        0 63 4 13</rect></_>
    <_>
      <rect>
        1 23 5 25</rect></_>
    <_>
      <rect>
        1 23 6 17</rect></_>
    <_>
      <rect>
        1 26 6 14</rect></_>
    <_>
      <rect>
        1 28 4 13</rect></_>
    <_>
      <rect>
        1 30 4 19</rect></_>
    <_>
      <rect>
        1 42 4 11</rect></_>
    <_>
      <rect>
        1 50 2 6</rect></_>
    <_>
      <rect>
        1 51 1 3</rect></_>
    <_>
      <rect>
        1 52 1 4</rect></_>
    <_>
      <rect>
        1 52 6 13</rect></_>
    <_>
      <rect>
        1 54 4 5</rect></_>
    <_>
      <rect>
        1 56 1 3</rect></_>
    <_>
      <rect>
        1 56 2 2</rect></_>
    <_>
      <rect>
        1 56 3 3</rect></_>
    <_>
      <rect>
        1 56 3 4</rect></_>
    <_>
      <rect>
        1 95 6 7</rect></_>
    <_>
      <rect>
        2 5 4 17</rect></_>
    <_>
      <rect>
        2 8 5 35</rect></_>
    <_>
      <rect>
        2 11 6 23</rect></_>
    <_>
      <rect>
        2 24 6 30</rect></_>
    <_>
      <rect>
        2 26 6 16</rect></_>
    <_>
      <rect>
        2 29 6 20</rect></_>
    <_>
      <rect>
        2 31 6 22</rect></_>
    <_>
      <rect>
        2 38 6 22</rect></_>
    <_>
      <rect>
        2 46 6 10</rect></_>
    <_>
      <rect>
        2 47 4 7</rect></_>
    <_>
      <rect>
        2 48 1 4</rect></_>
    <_>
      <rect>
        2 50 2 3</rect></_>
    <_>
      <rect>
        2 51 1 5</rect></_>
    <_>
      <rect>
        2 52 2 6</rect></_>
    <_>
      <rect>
        2 53 3 5</rect></_>
    <_>
      <rect>
        2 56 6 10</rect></_>
    <_>
      <rect>
        3 2 5 28</rect></_>
    <_>
      <rect>
        3 32 3 12</rect></_>
    <_>
      <rect>
        3 50 2 6</rect></_>
    <_>
      <rect>
        3 51 4 15</rect></_>
    <_>
      <rect>
        3 52 1 4</rect></_>
    <_>
      <rect>
        3 53 3 4</rect></_>
    <_>
      <rect>
        3 58 2 2</rect></_>
    <_>
      <rect>
        3 59 1 4</rect></_>
    <_>
      <rect>
        3 59 2 2</rect></_>
    <_>
      <rect>
        3 66 3 12</rect></_>
    <_>
      <rect>
        3 86 5 10</rect></_>
    <_>
      <rect>
        4 35 5 13</rect></_>
    <_>
      <rect>
        4 36 5 16</rect></_>
    <_>
      <rect>
        4 36 5 17</rect></_>
    <_>
      <rect>
        4 37 3 13</rect></_>
    <_>
      <rect>
        4 48 2 6</rect></_>
    <_>
      <rect>
        4 56 1 3</rect></_>
    <_>
      <rect>
        4 56 2 2</rect></_>
    <_>
      <rect>
        5 19 4 26</rect></_>
    <_>
      <rect>
        5 20 4 24</rect></_>
    <_>
      <rect>
        5 31 5 19</rect></_>
    <_>
      <rect>
        5 41 3 3</rect></_>
    <_>
      <rect>
        5 44 3 7</rect></_>
    <_>
      <rect>
        5 46 1 10</rect></_>
    <_>
      <rect>
        5 47 5 13</rect></_>
    <_>
      <rect>
        5 51 1 6</rect></_>
    <_>
      <rect>
        5 51 4 8</rect></_>
    <_>
      <rect>
        5 55 1 4</rect></_>
    <_>
      <rect>
        5 55 3 9</rect></_>
    <_>
      <rect>
        5 55 5 11</rect></_>
    <_>
      <rect>
        5 60 1 4</rect></_>
    <_>
      <rect>
        5 63 2 4</rect></_>
    <_>
      <rect>
        6 32 3 8</rect></_>
    <_>
      <rect>
        6 39 2 3</rect></_>
    <_>
      <rect>
        6 39 3 11</rect></_>
    <_>
      <rect>
        6 45 4 11</rect></_>
    <_>
      <rect>
        6 46 2 6</rect></_>
    <_>
      <rect>
        6 47 1 5</rect></_>
    <_>
      <rect>
        6 48 4 10</rect></_>
    <_>
      <rect>
        6 49 2 9</rect></_>
    <_>
      <rect>
        6 51 1 4</rect></_>
    <_>
      <rect>
        6 100 3 5</rect></_>
    <_>
      <rect>
        7 33 4 26</rect></_>
    <_>
      <rect>
        7 35 2 7</rect></_>
    <_>
      <rect>
        7 37 4 17</rect></_>
    <_>
      <rect>
        7 44 4 12</rect></_>
    <_>
      <rect>
        7 47 2 9</rect></_>
    <_>
      <rect>
        7 51 4 7</rect></_>
    <_>
      <rect>
        7 54 2 2</rect></_>
    <_>
      <rect>
        7 54 2 4</rect></_>
    <_>
      <rect>
        7 56 2 3</rect></_>
    <_>
      <rect>
        7 58 1 1</rect></_>
    <_>
      <rect>
        8 31 4 20</rect></_>
    <_>
      <rect>
        8 35 4 17</rect></_>
    <_>
      <rect>
        8 43 3 14</rect></_>
    <_>
      <rect>
        8 46 2 6</rect></_>
    <_>
      <rect>
        8 51 3 7</rect></_>
    <_>
      <rect>
        8 54 3 5</rect></_>
    <_>
      <rect>
        8 55 2 4</rect></_>
    <_>
      <rect>
        8 56 2 3</rect></_>
    <_>
      <rect>
        8 63 1 1</rect></_>
    <_>
      <rect>
        8 69 2 3</rect></_>
    <_>
      <rect>
        9 39 1 5</rect></_>
    <_>
      <rect>
        9 52 1 4</rect></_>
    <_>
      <rect>
        9 53 3 4</rect></_>
    <_>
      <rect>
        9 55 1 3</rect></_>
    <_>
      <rect>
        9 56 1 3</rect></_>
    <_>
      <rect>
        9 58 1 3</rect></_>
    <_>
      <rect>
        9 60 1 2</rect></_>
    <_>
      <rect>
        9 62 2 7</rect></_>
    <_>
      <rect>
        10 1 1 1</rect></_>
    <_>
      <rect>
        10 54 1 4</rect></_>
    <_>
      <rect>
        10 54 1 5</rect></_>
    <_>
      <rect>
        10 57 1 2</rect></_>
    <_>
      <rect>
        10 57 1 3</rect></_>
    <_>
      <rect>
        10 62 1 2</rect></_>
    <_>
      <rect>
        11 46 2 6</rect></_>
    <_>
      <rect>
        11 50 1 6</rect></_>
    <_>
      <rect>
        11 53 2 3</rect></_>
    <_>
      <rect>
        11 54 3 3</rect></_>
    <_>
      <rect>
        11 55 1 3</rect></_>
    <_>
      <rect>
        11 57 2 5</rect></_>
    <_>
      <rect>
        11 58 2 3</rect></_>
    <_>
      <rect>
        11 60 1 1</rect></_>
    <_>
      <rect>
        11 65 3 13</rect></_>
    <_>
      <rect>
        12 10 1 1</rect></_>
    <_>
      <rect>
        12 48 2 8</rect></_>
    <_>
      <rect>
        12 50 2 3</rect></_>
    <_>
      <rect>
        12 50 2 6</rect></_>
    <_>
      <rect>
        12 54 2 6</rect></_>
    <_>
      <rect>
        12 56 2 3</rect></_>
    <_>
      <rect>
        13 40 2 8</rect></_>
    <_>
      <rect>
        13 53 2 3</rect></_>
    <_>
      <rect>
        14 12 1 2</rect></_>
    <_>
      <rect>
        14 51 1 4</rect></_>
    <_>
      <rect>
        14 55 1 3</rect></_>
    <_>
      <rect>
        14 56 1 2</rect></_>
    <_>
      <rect>
        14 57 1 3</rect></_>
    <_>
      <rect>
        14 57 2 2</rect></_>
    <_>
      <rect>
        14 58 2 2</rect></_>
    <_>
      <rect>
        14 59 1 2</rect></_>
    <_>
      <rect>
        14 60 1 2</rect></_>
    <_>
      <rect>
        14 89 1 1</rect></_>
    <_>
      <rect>
        15 53 1 4</rect></_>
    <_>
      <rect>
        16 53 1 3</rect></_>
    <_>
      <rect>
        16 54 1 4</rect></_>
    <_>
      <rect>
        16 56 1 4</rect></_></features></cascade>
</opencv_storage>
